[{"shape": [8, 16], "activation function": "relu", "weights": [[-0.263372540473938, -0.31160497665405273, -0.06350881606340408, -0.4107855558395386, -0.34017062187194824, 0.939209520816803, -0.6894782781600952, 0.04061885550618172, -0.6072246432304382, 0.11769787967205048, 0.42007994651794434, 0.9882212281227112, -0.022267043590545654, -0.3127272427082062, 0.9435160160064697, 0.2634986937046051], [0.059070415794849396, 0.10806836187839508, -0.4300555884838104, -0.38903868198394775, 0.21546804904937744, 0.8936041593551636, 1.986063003540039, -0.002051291987299919, 1.0441304445266724, 0.9127339124679565, 1.1466773748397827, 0.21164022386074066, -0.5397610664367676, 0.665005624294281, 0.03771363943815231, -0.0163057092577219], [-0.009036671370267868, 0.17949256300926208, -0.48621687293052673, -0.3995918035507202, -0.3300105333328247, 0.008358022198081017, 0.04652363806962967, -0.13194046914577484, -0.12596839666366577, -0.2857916057109833, -0.2247488796710968, 0.18077729642391205, 0.32368364930152893, -0.35074925422668457, -0.2777564525604248, 0.131071075797081], [-0.24279263615608215, 0.3555344343185425, 0.06804902851581573, -0.41150903701782227, -0.49687421321868896, 0.8450636863708496, -0.6296429634094238, 0.005621667020022869, -0.6332651376724243, -0.5373515486717224, 0.43076613545417786, 0.015328369103372097, -0.18465344607830048, 0.3607880473136902, -0.9367926716804504, -0.13417905569076538], [-0.3321128189563751, -0.6636039018630981, 0.7731175422668457, -0.002568960189819336, -0.24105525016784668, 0.37980207800865173, 0.9732944369316101, 0.8920726180076599, 0.19093666970729828, -0.8422048687934875, 0.2384750247001648, -0.836147665977478, 0.4983583986759186, -1.3064632415771484, -0.5253358483314514, 0.9696050882339478], [-0.0924481749534607, 0.10211977362632751, -0.2573901116847992, -0.1349877119064331, -0.0593419075012207, 0.02149837836623192, 0.04109838977456093, 0.26003438234329224, -0.1322697103023529, 0.44248196482658386, 0.2669432461261749, -0.003857450559735298, 0.028644777834415436, -0.19564031064510345, -0.11784949898719788, 0.1791308969259262], [-0.19573180377483368, -0.4379831552505493, 0.5676599144935608, -0.2861887216567993, -0.23139441013336182, -0.04379187524318695, -0.17050285637378693, 0.6644165515899658, 0.4055025577545166, 0.15709444880485535, 0.5727859735488892, -0.07675342261791229, 0.0684807226061821, 0.6277105808258057, 0.4857657551765442, -0.5244181156158447], [0.4557533860206604, 25.557586669921875, -7.228468418121338, -0.2791393995285034, -0.48143112659454346, 29.67083168029785, 16.894207000732422, 21.461782455444336, 7.418942451477051, -8.336416244506836, -41.83724594116211, 11.614234924316406, -1.7085024118423462, -17.035377502441406, -12.919027328491211, 22.34051513671875]], "biases": [-0.04003145545721054, 0.14097344875335693, 0.3761713206768036, 0.0, 0.0, -0.4947606921195984, 0.17509408295154572, -0.3766797184944153, 0.3796852231025696, 0.231674924492836, -0.10499586164951324, 0.037648748606443405, -0.304369181394577, 0.16399025917053223, 0.05208578333258629, 0.0426483079791069]}, {"shape": [16, 16], "activation function": "relu", "weights": [[-0.31859877705574036, 0.2465316504240036, 0.17291758954524994, 0.15532390773296356, 0.32624945044517517, -0.33428290486335754, -0.16715160012245178, -0.16897860169410706, 0.2978764772415161, -0.23235084116458893, -0.03682303428649902, 0.2294134944677353, 0.28420546650886536, 0.1211969256401062, 0.1673184484243393, 0.29343482851982117], [0.11944512277841568, 0.2757236957550049, -0.04394817724823952, 0.11803039908409119, -0.21858102083206177, 0.17916278541088104, 0.3104512393474579, 0.28614258766174316, 0.5899535417556763, -0.0020341649651527405, -0.041163768619298935, 0.6226203441619873, -0.05925726518034935, -0.2818305790424347, -0.057791877537965775, 0.42338505387306213], [-0.20333215594291687, -1.0185805559158325, -0.564400315284729, 0.012202776968479156, -0.07103216648101807, 0.6322246789932251, 1.009297251701355, -0.7096654772758484, -0.1987501084804535, -0.24536310136318207, 0.038175079971551895, 0.0508723147213459, 0.09269586205482483, -0.10745640099048615, -0.2475000023841858, -0.08024412393569946], [-0.19664371013641357, 0.05016624927520752, -0.3612065613269806, -0.23024870455265045, 0.3829757869243622, -0.19505921006202698, -0.06354027986526489, -0.3056536316871643, 0.056189894676208496, 0.08943864703178406, 0.2017827332019806, 0.05150744318962097, -0.05836832523345947, 0.04753276705741882, -0.054063618183135986, 0.035464197397232056], [-0.39210420846939087, 0.06084296107292175, -0.08729961514472961, -0.08154511451721191, -0.32835304737091064, 0.054845839738845825, -0.1309657096862793, 0.13744708895683289, -0.2984432578086853, 0.3855317533016205, 0.42534372210502625, -0.1872529536485672, -0.09585839509963989, 0.19629433751106262, 0.08010688424110413, -0.15103542804718018], [0.34925395250320435, -0.8696869611740112, 1.2048723697662354, 0.27124279737472534, -0.23262876272201538, 1.6006962060928345, -0.04860556870698929, 0.8019970655441284, 0.8908020853996277, 0.1630229651927948, 0.6333452463150024, 0.422817200422287, -0.5134082436561584, 0.8485731482505798, -1.393232822418213, 0.20106080174446106], [-0.07385281473398209, -0.1792067289352417, 0.5942304730415344, 0.6242825388908386, -0.4265172779560089, 0.85199373960495, -0.0007144124829210341, 0.4166279733181, 0.5371979475021362, 0.08530029654502869, 0.4223173260688782, 0.3947887420654297, -0.3497331738471985, 0.6010510325431824, 0.5548309087753296, -0.18414254486560822], [0.1371341496706009, -0.1113336831331253, -0.13048028945922852, -0.30097436904907227, -0.1837073117494583, 0.40221577882766724, -0.557932436466217, 0.34407296776771545, -0.1955832988023758, -0.318625807762146, -0.12671920657157898, 0.20817884802818298, -0.29414302110671997, -0.24348881840705872, -0.21608875691890717, -0.2606712877750397], [0.3095342218875885, -0.4996393322944641, -0.4633829593658447, -0.297488272190094, 0.31466349959373474, 0.033051326870918274, -0.35259032249450684, 0.021213728934526443, 0.2355329841375351, -0.09182661771774292, 0.3852692246437073, 0.19222615659236908, -0.18660978972911835, 0.17373576760292053, -0.24607069790363312, 0.02618148736655712], [0.018928494304418564, 0.20335014164447784, 0.3945411145687103, -0.18376940488815308, 0.004042803775519133, 0.18081168830394745, 0.6802123188972473, 0.18576323986053467, 0.24611112475395203, 0.0074938214384019375, 0.29112881422042847, 0.03186848387122154, -0.10064917057752609, 0.4683380126953125, 0.4287291467189789, -0.09721128642559052], [-0.2601528465747833, 0.2988928258419037, -0.5222522020339966, -0.14080938696861267, -0.010022271424531937, -0.8939074873924255, 0.13111679255962372, -0.6454627513885498, 0.07948309183120728, -0.17180432379245758, -0.34648391604423523, -0.4940299391746521, -0.38316577672958374, -0.14931073784828186, -0.030966654419898987, 0.497522234916687], [0.32100799679756165, 0.23671942949295044, -0.5452721118927002, -0.05544385313987732, -0.21635489165782928, -0.054951008409261703, -0.14164067804813385, 0.04429098591208458, -0.4351156949996948, -0.3189298212528229, 0.47636842727661133, 0.48567360639572144, 0.24148140847682953, 0.29451075196266174, 0.07916709780693054, -0.33441513776779175], [-0.2296115905046463, -0.05405692383646965, 0.5140000581741333, -0.6244707703590393, -0.13579508662223816, 0.38722723722457886, 0.7098227143287659, -0.007525393273681402, 0.049680743366479874, -0.25177037715911865, -0.12414131313562393, 0.2638881802558899, -0.22025617957115173, 0.013864915817975998, 0.10982245951890945, -0.024770649150013924], [0.03343729302287102, -1.2546334266662598, -0.7905479669570923, 0.24659579992294312, -0.09435699135065079, -0.8981660604476929, 0.02886921912431717, -0.6665577292442322, -0.19968397915363312, 0.030168350785970688, 0.044224418699741364, -0.44981032609939575, -0.3913986086845398, -0.2504633665084839, -0.1892789602279663, -0.08227498829364777], [-0.1890861690044403, -0.8007586598396301, -0.028382666409015656, 0.010409790091216564, -0.28303083777427673, -0.45663249492645264, 0.01367837656289339, -0.9446890354156494, -0.2587488889694214, -0.3085283935070038, -0.6514142751693726, -0.4116995930671692, -0.5607810616493225, -0.2073110044002533, -0.3277667462825775, -0.23027600347995758], [-0.6325694918632507, 0.30951306223869324, -0.0934932604432106, 0.9346886873245239, -0.25596463680267334, -0.10334601998329163, -0.18248768150806427, 0.5071064233779907, -0.2213307023048401, -0.30762362480163574, -0.9150288105010986, 0.011437698267400265, -0.2653783857822418, 0.10912874341011047, 0.1907527893781662, 0.03539237752556801]], "biases": [0.24107638001441956, -0.254695326089859, 0.28482910990715027, -0.027987822890281677, -0.07243156433105469, -0.1022195890545845, -0.18155810236930847, 0.2292926162481308, -0.27522486448287964, -0.025632523000240326, -0.29562002420425415, 0.10228272527456284, -0.1732609122991562, -0.41206589341163635, -0.0519682951271534, -0.04684741050004959]}, {"shape": [16, 3], "activation function": "linear", "weights": [[0.010714216157793999, -0.24447757005691528, 0.1643005758523941], [0.05514439940452576, -0.002984731225296855, -0.3378167748451233], [0.047142110764980316, -0.01174585148692131, 0.6127182841300964], [0.010834623128175735, 0.11539224535226822, 0.39543837308883667], [-0.12823083996772766, -0.3482736051082611, 0.12141572684049606], [0.016723761335015297, 0.015787428244948387, -0.7430402040481567], [0.007482334040105343, -0.07250592857599258, -0.35154759883880615], [0.011624864302575588, -0.01196666993200779, 0.4427856206893921], [0.6966878175735474, -0.16513913869857788, -0.07088814675807953], [-0.5318295955657959, 0.45926037430763245, 0.02928912080824375], [0.012549394741654396, 0.11585389077663422, -0.395538866519928], [0.014753456227481365, 0.023444708436727524, 0.5849713087081909], [-0.05397884175181389, -0.2549007534980774, -0.21695825457572937], [-0.6786345839500427, -0.1396089345216751, -0.1359076052904129], [-0.23770028352737427, -0.05911559611558914, 0.06694649159908295], [0.28432369232177734, 0.005235569551587105, -0.01698710396885872]], "biases": [-0.019986599683761597, 0.07790128886699677, 0.19168655574321747]}]