[{"shape": [5, 16], "activation function": "relu", "weights": [[-0.31433191895484924, 0.39017072319984436, -0.0009541726903989911, 0.11099636554718018, 0.31567487120628357, 0.4206676781177521, 0.36616432666778564, 0.446929395198822, 0.6402421593666077, -0.102366141974926, -0.08597446978092194, 0.6093912720680237, -0.16193228960037231, -0.8105202913284302, 0.07440531253814697, 0.8357896208763123], [0.7503246665000916, -0.1379794031381607, 0.0020412642043083906, 0.043863002210855484, 0.5601075291633606, 0.003558474127203226, 0.5800517201423645, -0.424299418926239, 0.013290963135659695, -0.002405477687716484, 0.8019638061523438, -0.4018251299858093, -0.020731916651129723, -0.6440325379371643, -0.09559030085802078, -0.057057902216911316], [-0.011233252473175526, -0.17370712757110596, -0.002603176049888134, 0.058094099164009094, 0.05960829555988312, -0.09165054559707642, 0.05825481563806534, 0.2988176643848419, 0.3574202358722687, -0.09042322635650635, -0.040634360164403915, 0.020729614421725273, -0.09726975858211517, -0.005380589980632067, -0.17557552456855774, 0.29430726170539856], [0.0027191806584596634, -0.014796766452491283, -0.3358777165412903, -0.45194315910339355, -0.0006561226909980178, -0.1160501167178154, 0.010652822442352772, 0.00901217944920063, 0.017079565674066544, -0.4298892021179199, 0.006287301424890757, 0.001173841767013073, 0.4075074791908264, -0.007345013320446014, -0.01158424187451601, 0.019361156970262527], [0.038882747292518616, -0.09725665301084518, -0.00628752913326025, 0.04116342216730118, 0.08811821043491364, -0.2774728238582611, 0.10016673803329468, -0.16749514639377594, 0.07174339890480042, -0.007426723372191191, 0.3438504636287689, -0.00313406134955585, -0.015833133831620216, -0.011462222784757614, 0.1766783446073532, -0.022500304505228996]], "biases": [-0.01307471189647913, -0.18454532325267792, 0.1713234782218933, -0.3627265989780426, -0.2362605333328247, 0.24808166921138763, -0.142584428191185, -0.14163362979888916, -0.38188329339027405, 0.015483043156564236, -0.04770722612738609, -0.012391682714223862, 0.12611736357212067, 0.5553746223449707, 0.04351527616381645, -0.05965922772884369]}, {"shape": [16, 16], "activation function": "relu", "weights": [[0.02664831280708313, 0.7554141879081726, -0.09379008412361145, 0.34251976013183594, -0.12583591043949127, -0.24866452813148499, -0.033428311347961426, 0.07845932245254517, -0.10065750032663345, -0.7969373464584351, -0.15711502730846405, -0.3328228294849396, -0.4438047409057617, 0.3962395489215851, -0.025316081941127777, -0.008658407256007195], [0.5477542877197266, -0.31525710225105286, 0.08285907655954361, -0.18644170463085175, -0.10910952091217041, -0.27022039890289307, 0.011943800374865532, 0.08930598199367523, -0.32634180784225464, 0.3311616778373718, -0.3015250861644745, -0.4151235818862915, 0.2375899851322174, 0.31803980469703674, 0.010634864680469036, -0.27114495635032654], [0.010269165970385075, -0.09272951632738113, 0.028390971943736076, 0.2861461937427521, 0.15408454835414886, 0.03642411157488823, 0.10890910029411316, 0.30677276849746704, -0.08073031157255173, -0.0748768001794815, 0.10741430521011353, -0.09703738987445831, 0.2650829255580902, 0.08778632432222366, 0.27716150879859924, -0.10555743426084518], [0.08290842920541763, -0.06715709716081619, 0.06592722982168198, 0.24596422910690308, 0.14504286646842957, 0.08669198304414749, 0.08134941756725311, 0.17905452847480774, -0.03335811197757721, -0.024995101615786552, 0.11323505640029907, 0.025028694421052933, -0.37644511461257935, 0.04064103960990906, 0.18290846049785614, -0.015588050708174706], [-0.11340620368719101, -0.15434366464614868, 0.2290915995836258, 0.03143297880887985, 0.1366935819387436, 0.024608753621578217, -0.12529662251472473, -0.06896332651376724, -0.151885524392128, 0.6991546750068665, 0.1284990757703781, 0.4970848262310028, -0.32694849371910095, 0.3393875062465668, -0.23847027122974396, 0.02297600544989109], [0.08366311341524124, 0.38406074047088623, -0.11691123247146606, 0.06940607726573944, -0.23236000537872314, 0.09325035661458969, -0.04604983702301979, -0.4699825644493103, -0.021719934418797493, 0.25589457154273987, -0.3396466076374054, 0.35897231101989746, -0.20068417489528656, 0.051620930433273315, -0.4894810616970062, 0.407808780670166], [-0.3414849042892456, -0.008521925657987595, 0.22975794970989227, -0.22672681510448456, 0.2074653059244156, 0.23562036454677582, 0.22076846659183502, 0.3705468475818634, -0.32507196068763733, 0.6400514841079712, 0.2798025608062744, -0.4032803475856781, -0.20877543091773987, 0.3909147083759308, 0.29470449686050415, -0.026426738128066063], [0.0989985540509224, -0.44030341506004333, 0.24021223187446594, 0.45421454310417175, -0.06746379286050797, 0.13345688581466675, 0.2407800257205963, -0.3609108626842499, -0.19940686225891113, -0.006161416415125132, 0.39590689539909363, 0.13663771748542786, -0.14318129420280457, -0.2067088782787323, 0.3248184621334076, -0.53008633852005], [0.31812092661857605, 0.018663516268134117, 0.13903866708278656, 0.611942708492279, 0.23316657543182373, -0.004638021346181631, 0.09420853108167648, 0.47264233231544495, -0.09864304959774017, 0.00021352904150262475, 0.7810343503952026, -0.016255907714366913, -0.1743655502796173, -0.08691088110208511, 0.24309824407100677, -0.06196644902229309], [-0.07149845361709595, -0.023088717833161354, -0.13108649849891663, -0.05334413796663284, -0.030431227758526802, 0.12233609706163406, 0.10112833976745605, 0.06657034903764725, -0.04268466681241989, 0.014740575104951859, 0.2468658685684204, -0.008737027645111084, 0.25941550731658936, 0.024449624121189117, 0.0939759910106659, 0.04768441990017891], [0.1891566514968872, -0.25499001145362854, -0.29190680384635925, -0.23057042062282562, -0.14560958743095398, 0.7470945715904236, 0.5717454552650452, 1.0210870504379272, -0.23726129531860352, 0.008358555845916271, 0.03650212660431862, 0.22365696728229523, -0.14296944439411163, 0.16147840023040771, 0.9699684977531433, 0.04097166657447815], [-0.2914094030857086, 0.9110955595970154, -0.3189506232738495, -0.02357330545783043, 0.22618426382541656, -0.02202422358095646, -0.2020905762910843, -0.2027629166841507, -0.056339312344789505, -0.6795423030853271, -0.048006322234869, -0.10761533677577972, -0.40748468041419983, 0.32028862833976746, -0.09653604030609131, -0.24817852675914764], [0.09749291092157364, 0.03236604481935501, -0.10821671783924103, 0.3935962915420532, 0.02449660375714302, 0.09871426969766617, 0.15744376182556152, 0.16396912932395935, -0.10233819484710693, 0.028426295146346092, 0.09740110486745834, 0.054540302604436874, -0.007715986575931311, 0.10297510772943497, 0.16272462904453278, 0.09153851866722107], [1.2922824621200562, -0.26816171407699585, 0.837491512298584, 0.10441820323467255, -0.12541987001895905, -0.6426345109939575, -0.020071156322956085, -0.11530174314975739, -1.076989769935608, 1.4130492210388184, -0.05517111346125603, 0.4313250780105591, -0.17469707131385803, 0.23171252012252808, -0.10232745110988617, 0.9896969199180603], [0.4371434152126312, -0.1334477663040161, -0.3217664957046509, 0.22877375781536102, -0.18740639090538025, 0.10745546221733093, -0.00413079047575593, -0.07023876905441284, 0.15948329865932465, 0.1243898868560791, -0.2256285697221756, 0.3626445531845093, -0.36954015493392944, 0.1199842244386673, 0.10920727252960205, -0.28526756167411804], [-0.16238026320934296, -0.08868016302585602, -0.03221157565712929, 0.26974618434906006, 0.8224536180496216, 0.4018385112285614, 0.26492804288864136, 0.3874152898788452, -0.20130139589309692, 0.08167607337236404, 0.46961405873298645, 0.03190291300415993, -0.17731913924217224, 0.23277412354946136, 0.2744060158729553, 0.2763337194919586]], "biases": [0.1312554031610489, 0.24393735826015472, 0.2771212160587311, -0.16360610723495483, -0.0906670093536377, 0.2517111897468567, -0.18702876567840576, -0.3560049831867218, 0.5317971110343933, -0.33722570538520813, -0.3645351529121399, -0.11227129399776459, -0.06823629140853882, -0.19369100034236908, -0.5297761559486389, -0.04760776832699776]}, {"shape": [16, 16], "activation function": "relu", "weights": [[0.4213777780532837, 0.17222599685192108, -0.3324715495109558, -0.04215076565742493, 0.453279584646225, -0.39871945977211, -0.1711784452199936, 0.26839175820350647, 0.11901062726974487, -0.010078072547912598, -0.06505053490400314, 0.10944053530693054, 0.09600115567445755, 0.009295663796365261, -0.17090342938899994, -0.4432681202888489], [-0.7073285579681396, -0.4767615497112274, 0.5400952100753784, -0.06313181668519974, -0.7009174227714539, -0.08917766809463501, -0.455289751291275, -0.09360174089670181, -0.1418953388929367, 0.16014762222766876, -0.021191002801060677, -0.02883094549179077, 0.19890594482421875, 0.3309001922607422, 0.17430958151817322, 0.3087010681629181], [-0.4353649318218231, -0.010420328006148338, -0.39725154638290405, 0.05155780538916588, -0.4099943935871124, -0.00958734005689621, 0.23706306517124176, 0.5069934725761414, -0.41431736946105957, -0.04318641498684883, -0.2364194542169571, -0.19410808384418488, -0.13910169899463654, 0.0007606720319017768, 0.03644133731722832, -0.38478749990463257], [0.04586867243051529, -0.12727726995944977, 0.04992341622710228, 0.1817801147699356, -0.08400475233793259, 0.27976492047309875, 0.2972569763660431, -0.14647968113422394, -0.2905707359313965, -0.3079211115837097, 0.41635289788246155, -0.30918529629707336, 0.0535590834915638, -0.005507523659616709, 0.11628381162881851, 0.2833978235721588], [0.3078366219997406, 0.27347487211227417, 0.044015541672706604, 0.3556261360645294, -0.05906253308057785, 0.4876026213169098, 0.07627995312213898, -0.0703863725066185, 0.05349898338317871, 0.1267596036195755, 0.6788080930709839, -0.3523865044116974, 0.14540928602218628, -0.03456267714500427, 0.2777330279350281, 0.05886099860072136], [0.10671504586935043, -0.419241726398468, 0.0713939219713211, 0.17234665155410767, 0.23906266689300537, 0.2795569896697998, 0.17724382877349854, 0.20618924498558044, 0.11450043320655823, -0.0006496671121567488, 0.21802233159542084, -0.43186694383621216, -0.12469147145748138, 0.2898758053779602, 0.26649606227874756, -0.2251691073179245], [-0.538029134273529, 0.005807565525174141, 0.11502567678689957, 0.3295169472694397, 0.38202953338623047, 0.27303382754325867, 0.30107206106185913, -0.10252679139375687, 0.10712011903524399, -0.3610926568508148, 0.09033971279859543, -0.12056133151054382, 0.10704018920660019, -0.24760295450687408, 0.427080899477005, 0.22157472372055054], [-0.10362010449171066, 0.0463876910507679, 0.03775150701403618, 0.10368512570858002, 0.0296400785446167, 0.3784617483615875, -0.1369408667087555, -0.19373665750026703, 0.880670964717865, -0.16782435774803162, 0.06573639065027237, -0.2094549685716629, 0.07949652522802353, -0.07522330433130264, 0.2665208578109741, 0.23262745141983032], [0.7238062620162964, 0.39957985281944275, -0.6954780220985413, -0.6278905868530273, 0.14640167355537415, -1.0941921472549438, -0.34849393367767334, 0.3689699172973633, -0.33423373103141785, -0.37810057401657104, -0.2969243824481964, -0.3696077764034271, -0.2435336709022522, -0.31600257754325867, 0.02527972310781479, 0.6114436388015747], [0.20847970247268677, -0.2088841050863266, -0.9981577396392822, -0.3625485599040985, 0.006215327885001898, -0.10096680372953415, -0.06574384868144989, 0.318302720785141, -0.16285379230976105, -0.16466863453388214, -0.11103648692369461, -0.33024197816848755, -0.41701510548591614, -0.21254591643810272, -0.03571361303329468, 0.3973686695098877], [0.10834264010190964, 0.25380459427833557, 0.052736375480890274, 0.06986092031002045, 0.508625864982605, 0.5494645833969116, 0.9257935881614685, -0.045891325920820236, 0.44631582498550415, -0.03577864542603493, -0.2854815721511841, -0.37695246934890747, 0.30457109212875366, -0.14469093084335327, 0.5782856345176697, 0.3079923987388611], [-0.3188985586166382, -0.07550787925720215, -0.0041466569527983665, -0.4022727906703949, -1.1740202903747559, -0.30612608790397644, -0.16721448302268982, 0.3085136413574219, -0.4479179084300995, -0.16982616484165192, 0.21711912751197815, 0.15072324872016907, 0.29767411947250366, -0.091559499502182, 0.16240984201431274, -0.24093440175056458], [0.3833234906196594, -0.3235044479370117, 0.3902682662010193, 0.07726497948169708, -0.24824818968772888, -0.2581079602241516, 0.2426232397556305, 0.09955352544784546, -0.09836942702531815, 0.11254921555519104, 0.38486456871032715, -0.0003527700901031494, 0.3674367070198059, -0.3983018398284912, -0.37156036496162415, -0.3893798887729645], [0.23935848474502563, -0.21446016430854797, 0.3195742666721344, 0.3782031536102295, -0.18119308352470398, -0.11297459155321121, 0.1705508828163147, -0.3660651445388794, -0.13108640909194946, -0.40485680103302, -0.19419483840465546, -0.3489592969417572, 0.6670417189598083, -0.3473224639892578, 0.3735797703266144, 0.3133198320865631], [0.35353323817253113, 0.15480607748031616, -0.13541704416275024, -0.004740897566080093, -0.644458532333374, 0.6988076567649841, 1.6966532468795776, 0.0786079466342926, -0.014358695596456528, 0.2718425691127777, 0.9864729642868042, -0.42104780673980713, 0.09264721721410751, 0.2563410997390747, 0.2594868838787079, 0.5439816117286682], [0.06454279273748398, -0.2383534461259842, -0.41574013233184814, 0.05202890560030937, -0.15799981355667114, -0.3325410783290863, -0.44547367095947266, -0.1250922679901123, 0.0004765415214933455, -0.21106190979480743, 0.15395693480968475, -0.0020629167556762695, 0.15625669062137604, -0.27402278780937195, -0.16010558605194092, 0.0008475217036902905]], "biases": [0.030093098059296608, -0.036673665046691895, -0.07916311174631119, 0.19642643630504608, 0.11795492470264435, -0.24349188804626465, -0.2712293267250061, 0.09765519946813583, -0.026685990393161774, -0.06543412059545517, -0.14614608883857727, 0.0, -0.35663777589797974, 0.24607646465301514, 0.16344325244426727, -0.4549115002155304]}, {"shape": [16, 2], "activation function": "linear", "weights": [[0.012445175088942051, -0.07995306700468063], [0.08442346006631851, -0.23031629621982574], [0.02177906595170498, -0.10837250202894211], [0.021103227511048317, 0.2630614638328552], [-0.09066624194383621, -0.06809572875499725], [0.095174640417099, 0.026101350784301758], [0.1612033098936081, 0.21943184733390808], [-0.06249040365219116, -0.11386880278587341], [0.11896881461143494, 0.1730014532804489], [-0.35984185338020325, -0.4279840290546417], [0.15255038440227509, 0.1506294161081314], [0.09261572360992432, 0.02005094289779663], [-0.058440737426280975, -0.1860472410917282], [-0.17126025259494781, 0.16174864768981934], [0.1982768476009369, 0.479170024394989], [-0.10284905880689621, -0.1842806190252304]], "biases": [0.04904884099960327, 0.09847880154848099]}]