[{"shape": [6, 16], "activation function": "relu", "weights": [[0.011967545375227928, -0.00040148335392586887, 0.08563794940710068, 1.072106957435608, -0.3149522840976715, -0.0387238971889019, -1.4319130182266235, -0.0984412431716919, 0.04732042923569679, -0.21495625376701355, -0.04934300482273102, 0.777193546295166, -0.021690290421247482, -0.0657646507024765, 0.749042809009552, -0.4236952066421509], [0.11930303275585175, 0.0388430655002594, 0.08689028769731522, -0.4032457768917084, 0.8029235005378723, 0.0004158011870458722, -0.2662084400653839, -0.08538243919610977, 0.03904270380735397, 0.6977658867835999, 0.03509403020143509, -1.3945730924606323, 0.010388457216322422, -0.1956087052822113, 1.2571361064910889, -0.46992215514183044], [0.684508740901947, 0.49255818128585815, 0.22072622179985046, 0.3381955623626709, 0.791954755783081, 0.355449914932251, 0.11940078437328339, 0.23273947834968567, 0.3560115694999695, -0.24173663556575775, 0.25400879979133606, 0.1985001564025879, 0.514525294303894, 0.8423225283622742, 0.41094735264778137, 0.7305537462234497], [0.160239577293396, -0.3797687888145447, -0.09047204256057739, 0.5703603625297546, -0.15424887835979462, 0.3369525074958801, -0.14491409063339233, -0.029293101280927658, 0.34499114751815796, -0.2559475004673004, -0.027667615562677383, 0.02405531145632267, -0.21930350363254547, -0.034389201551675797, 0.11132931709289551, -0.2396593987941742], [-0.021479738876223564, -0.23674243688583374, 0.2935583293437958, -0.23302972316741943, 0.2802464962005615, -0.3014978766441345, -0.034457869827747345, 0.3343346416950226, 0.1365801990032196, 0.522865891456604, 0.3105123043060303, -0.06567040830850601, -0.005042883101850748, -0.039417047053575516, 0.10892421007156372, -0.22183632850646973], [-0.09281060099601746, 0.1822076141834259, -0.140821173787117, 0.14113320410251617, 0.3199435770511627, 0.19352635741233826, 0.01907789148390293, -0.24224700033664703, 0.30701595544815063, -0.15452300012111664, 0.27839481830596924, 0.0625113919377327, 0.6053784489631653, 0.020007703453302383, 0.07860216498374939, 0.44286537170410156]], "biases": [0.48351922631263733, 0.578089714050293, 0.4679352641105652, -0.08426811546087265, -0.12157660722732544, 0.5794796347618103, -0.022082790732383728, 0.33074331283569336, 0.47458112239837646, 0.01086997240781784, 0.37346524000167847, -0.020136365666985512, 0.4546736180782318, -0.14300429821014404, 0.010613624937832355, -0.1795254349708557]}, {"shape": [16, 16], "activation function": "relu", "weights": [[-0.6915515065193176, 0.03220919147133827, -0.4253332018852234, 0.31767308712005615, -0.10885987430810928, -0.10520023107528687, -0.49183741211891174, -0.4094406068325043, -0.09067554026842117, -0.1937359869480133, 0.44628995656967163, -0.11685318499803543, 0.1850249320268631, -0.27150774002075195, 0.6001712083816528, 0.008148059248924255], [0.38515526056289673, 0.039432376623153687, -0.056083034723997116, -0.6501467227935791, 0.37484556436538696, -0.41352516412734985, 0.27195414900779724, -0.19205260276794434, 0.193396657705307, -0.18954528868198395, -0.7047862410545349, 0.39524415135383606, -0.014663890935480595, 0.3876408636569977, 0.4827733039855957, -0.24033881723880768], [0.08409945666790009, 0.37325042486190796, -0.7626044154167175, -0.3827846646308899, 0.1782822161912918, -0.1147560179233551, -0.21486367285251617, -0.23147514462471008, -0.4984169900417328, 0.05952807515859604, 0.31562039256095886, 0.5341042876243591, -0.006467944011092186, 0.013531546108424664, -0.1376623660326004, 0.03025102987885475], [0.07302025705575943, 0.11088809370994568, 0.30241888761520386, 0.2821929454803467, 0.2568599283695221, 0.9223219752311707, 0.4989411234855652, 0.24417974054813385, 0.22859157621860504, 0.40309467911720276, 0.5042538046836853, 0.12470422685146332, 0.3602987229824066, 0.27448755502700806, 0.43943822383880615, 0.47321218252182007], [-0.16366839408874512, 0.285727858543396, 0.20289309322834015, 0.4202154576778412, 0.4638065993785858, 0.6365392208099365, 0.09284650534391403, 0.35800132155418396, 0.366773396730423, 0.25945237278938293, 0.4950716495513916, -0.28141531348228455, 0.4875371754169464, 0.338789701461792, 0.4429245889186859, 0.35842272639274597], [0.022382114082574844, -0.563132107257843, 0.09881855547428131, 0.4138965606689453, -0.31177181005477905, -0.3997887969017029, 0.31149381399154663, -0.015734154731035233, -0.047062382102012634, 0.019527820870280266, -0.2454436719417572, 0.19637668132781982, 0.14561158418655396, 0.023216020315885544, 0.13626116514205933, -0.3176272511482239], [-0.6139180064201355, 0.44451630115509033, 0.11491839587688446, 0.59967440366745, 0.5001212954521179, 0.0018926779739558697, 0.39520320296287537, 0.3092195391654968, 0.430678129196167, 0.2214345782995224, 0.5643920302391052, -0.7112876176834106, 0.30450186133384705, 0.46432894468307495, 0.5423710942268372, 0.2079576551914215], [-0.1647208333015442, 0.29923397302627563, -0.2927619516849518, -0.01572190411388874, -0.1465604454278946, -0.09285977482795715, 0.1505018025636673, -0.07259009033441544, -0.472791463136673, -0.18921487033367157, 0.019213151186704636, -0.08113619685173035, -0.6152649521827698, -0.33530285954475403, 0.4627176821231842, -0.13815465569496155], [0.26108843088150024, 0.10974656790494919, 0.010829332284629345, 0.5935680270195007, -0.6161673665046692, 0.4861392676830292, -0.13361842930316925, 0.7426434755325317, 0.3590492606163025, -0.27797049283981323, -0.09638980776071548, -0.4360480010509491, -0.09811671823263168, -0.10873787850141525, -0.42889901995658875, -0.7642645835876465], [-0.06463100016117096, -0.036378342658281326, 0.1521376371383667, 0.23729471862316132, 0.09800182282924652, 0.4801531732082367, 0.6937784552574158, -0.03889968991279602, -0.10088244080543518, 0.3435697853565216, 0.2584599256515503, 0.0077238529920578, 0.07171885669231415, 0.3072673976421356, 0.04631379246711731, 0.21546651422977448], [0.28866174817085266, 0.4200882911682129, -0.4521656036376953, -0.08155865967273712, -0.02475688047707081, -0.1291346549987793, -0.46984225511550903, 0.5641670227050781, 0.3557824194431305, -0.3080970346927643, 0.3866097927093506, -0.1253724843263626, -0.19299499690532684, 0.22099719941616058, -0.6814067363739014, 0.3874935209751129], [-0.6903843879699707, 0.5526977777481079, 0.08792123198509216, 0.523729681968689, 0.36317798495292664, -0.11477718502283096, 0.1625918596982956, 0.24332918226718903, 0.5121917128562927, 0.1379632204771042, 0.41646116971969604, -0.5249139666557312, 0.20875193178653717, 0.43548133969306946, 0.6276645064353943, 0.15675325691699982], [0.1680447906255722, 0.03917435556650162, 0.17722031474113464, -0.3756539523601532, 0.4579358398914337, -0.07392415404319763, -0.35899847745895386, 0.5092139840126038, 0.2477702498435974, 0.4784570634365082, -0.17070016264915466, 0.08343616127967834, -0.28748130798339844, 0.143443301320076, -0.27567538619041443, 0.15882883965969086], [-0.7969167828559875, 0.035315852612257004, 0.3340376317501068, 0.33598023653030396, 0.35263708233833313, 0.23101383447647095, 0.20590858161449432, -0.03646470978856087, 0.2758702039718628, 0.356328547000885, 0.6897812485694885, -0.35881558060646057, 0.1257018893957138, 0.18729707598686218, 0.2750808596611023, 0.3104846179485321], [-0.6346614360809326, 0.3181643784046173, 0.3301466703414917, 0.3562443256378174, 0.27689504623413086, 0.37537920475006104, -0.019085640087723732, 0.2849946916103363, 0.3934415578842163, 0.28725096583366394, 0.529051661491394, -0.11278433352708817, 0.2656185030937195, 0.533363938331604, 0.7014198899269104, 0.35212182998657227], [0.006956744473427534, 0.1450851708650589, 0.3227258324623108, 0.30958253145217896, 0.34561753273010254, 0.8474190831184387, 0.6836113929748535, 0.35477718710899353, 0.2848227620124817, 0.2629379332065582, 0.4693005084991455, -0.36854833364486694, 0.48491787910461426, 0.3587295413017273, 0.4629833400249481, 0.5299345254898071]], "biases": [0.08893126249313354, -0.22263678908348083, -0.18176957964897156, -0.19724422693252563, -0.09628983587026596, -0.34519293904304504, -0.2400653064250946, 0.019118864089250565, 0.005960513837635517, -0.21860964596271515, -0.21090102195739746, 0.3273608088493347, -0.3566214144229889, 0.03993306681513786, 0.09901756048202515, -0.07998165488243103]}, {"shape": [16, 16], "activation function": "relu", "weights": [[0.5158905982971191, -0.8705847859382629, -0.008615652099251747, -0.4424061179161072, 0.1292203813791275, -0.21661533415317535, 0.5248149633407593, -0.6619394421577454, -0.997619092464447, 0.3331032395362854, 0.34764039516448975, -0.511533260345459, -0.24658863246440887, -0.3886183202266693, 0.01514266524463892, -0.44529861211776733], [0.008252312429249287, -0.21923679113388062, 0.5743289589881897, 0.3022930324077606, 0.10094108432531357, -0.18580572307109833, -0.12012021243572235, -0.7111929059028625, 0.37022677063941956, 0.14995485544204712, 0.1282317042350769, -0.02271331287920475, -0.4330116808414459, -0.12870675325393677, -0.16329969465732574, 0.31897756457328796], [-0.5299825668334961, -0.17521271109580994, 0.16924412548542023, -0.684430718421936, -0.05612460896372795, 0.6176629066467285, -0.2403872162103653, 0.7440886497497559, 0.1921035349369049, -0.1805727779865265, -0.37531208992004395, 0.4641546607017517, 0.5053353309631348, 0.08479883521795273, 0.0343143530189991, 0.3619866967201233], [-0.5040754675865173, 0.01927066594362259, -0.4064393937587738, 0.13141284883022308, 0.19411668181419373, 0.2918672561645508, 0.05874495953321457, 0.27604177594184875, -0.4314928352832794, -0.0937049612402916, 0.3888491988182068, 0.5393403172492981, -0.18590767681598663, -0.2941235303878784, -0.3243943154811859, -0.08436069637537003], [-0.009896628558635712, 0.11446604877710342, 0.539673388004303, -0.15663261711597443, -0.33069416880607605, -0.1607961505651474, -0.15365970134735107, -0.05352281779050827, -0.17580316960811615, 0.04288675636053085, -0.09448032826185226, -0.5941413640975952, 0.23402370512485504, 0.5128323435783386, 0.37796109914779663, -0.09296711534261703], [-0.7397447228431702, 0.3963637351989746, 0.2652599811553955, 0.47006237506866455, -0.8228862285614014, 0.5452641248703003, -0.7886658310890198, 0.41948196291923523, 0.386385977268219, -0.7736721038818359, 0.25290846824645996, 0.36909469962120056, 0.29059502482414246, 0.48072099685668945, 0.17838063836097717, 0.8468989729881287], [-0.6223205924034119, 0.5321996212005615, 0.08229655027389526, -0.09514901041984558, -0.6263238191604614, 0.2704586982727051, -0.7077102065086365, 0.3498907685279846, 0.1455249786376953, -0.7800464630126953, -0.3909120261669159, 0.42704859375953674, 0.36792147159576416, 0.03051820956170559, 0.50784832239151, 1.0001487731933594], [0.046187933534383774, -0.35531291365623474, -0.41489478945732117, 0.10348712652921677, 0.18249526619911194, 0.2163066565990448, 0.4389166533946991, -0.30898070335388184, -0.015546256676316261, -0.08662695437669754, 0.522691547870636, 0.16956259310245514, -0.21403421461582184, 0.5842292904853821, -0.22463291883468628, -0.0917430892586708], [0.01215443853288889, -0.3121112883090973, -0.10888104140758514, -0.37245815992355347, -0.18203502893447876, 0.2891711890697479, -0.004558890592306852, 0.289036363363266, 0.6021969318389893, -0.2015819102525711, 0.06504189968109131, 0.4139539897441864, 0.5207735300064087, 0.6093782186508179, -0.18119768798351288, -0.03376435860991478], [0.08752160519361496, 0.2712392807006836, 0.3461172580718994, -0.2571466863155365, 0.12286414206027985, 0.4452066719532013, -0.5671841502189636, 0.8795560598373413, 0.3401094377040863, -0.21694797277450562, -0.2635110020637512, -0.0887380912899971, 0.11585827171802521, 0.29323720932006836, 0.00958876684308052, 0.16606436669826508], [-0.16114529967308044, 0.19635064899921417, 0.4107198417186737, 0.557020902633667, 0.05103789269924164, -0.11673679947853088, -0.4675869345664978, 0.2609250843524933, 0.3464558720588684, -0.009888770990073681, 0.6607153415679932, 0.3276638686656952, -0.18604040145874023, 0.03330743685364723, -0.07528675347566605, 0.618867039680481], [0.17643263936042786, -0.3520355820655823, -0.28399381041526794, -0.09974411129951477, 0.5292343497276306, -0.5217646360397339, 0.41055840253829956, -0.2536463737487793, -0.02237609587609768, 0.5155804753303528, -0.04284307733178139, -0.1706634908914566, -0.3048863708972931, -0.27238088846206665, -0.4155951738357544, -0.5382105112075806], [0.05599789693951607, 0.22107523679733276, 0.2261446863412857, -0.11430224776268005, 0.2164551168680191, 0.00820927508175373, 0.04805518314242363, 0.3662067949771881, 0.09851580113172531, 0.3903126120567322, 0.018696831539273262, 0.31643250584602356, 0.5271234512329102, -0.40345078706741333, -0.26802703738212585, -0.6281916499137878], [0.15588462352752686, 0.2668856680393219, 0.06344828009605408, 0.1478535681962967, -0.22687745094299316, 0.478843629360199, -0.00963492039591074, 0.3754848837852478, 0.3286902904510498, -0.33674606680870056, -0.08281863480806351, -0.06021738052368164, 0.27075719833374023, 0.5832202434539795, 0.4166160821914673, 0.2895047664642334], [0.08067329972982407, 0.3745378851890564, 0.46594536304473877, 0.4646228849887848, 0.07181864231824875, -0.14896249771118164, 0.03606860339641571, 0.1484948843717575, -0.27318644523620605, 0.1986251026391983, 0.09097550064325333, 0.25223785638809204, 0.5919739603996277, -0.0013098020572215319, -0.3162075877189636, -0.46429646015167236], [-0.11331146210432053, 0.3297877311706543, 0.549176037311554, 0.04694970324635506, -0.19533860683441162, 0.33795514702796936, -0.05542243272066116, -0.40362823009490967, 0.32822301983833313, -0.08555615693330765, 0.06730819493532181, -0.37709662318229675, -0.049378931522369385, 0.12390781193971634, 0.3484993577003479, 0.5428308844566345]], "biases": [0.2772579789161682, 0.018077556043863297, 0.059333790093660355, 0.07466548681259155, 0.29286083579063416, -0.3051987290382385, 0.3712998926639557, 0.03297799080610275, -0.24575762450695038, 0.5216586589813232, -0.07549787312746048, 0.051039692014455795, -0.23863334953784943, 0.1831209659576416, -0.0337982177734375, -0.23072804510593414]}, {"shape": [16, 4], "activation function": "linear", "weights": [[0.9669088125228882, 0.16287709772586823, -0.3608378469944, -0.005886654369533062], [-0.24837350845336914, -0.41627994179725647, -0.686237096786499, 0.18696588277816772], [-0.7160326838493347, 0.049202483147382736, -0.5919947028160095, -0.11827868223190308], [0.35388946533203125, 0.5590134263038635, -0.6055873036384583, 0.2806299328804016], [-1.1562782526016235, -0.45665574073791504, 0.3468243181705475, 0.021604137495160103], [0.3361889719963074, -0.03583462908864021, 0.7225157618522644, 0.006354792974889278], [0.01586446538567543, 0.020709285512566566, -1.0502952337265015, -0.28403857350349426], [0.5301297903060913, -0.7519233822822571, 0.03587270528078079, -0.021012913435697556], [-0.15474346280097961, 0.3970751464366913, 0.5582308173179626, -0.14269788563251495], [0.42150527238845825, 0.023513298481702805, 0.9684324860572815, -0.011310256086289883], [0.4626254439353943, 0.46228206157684326, -0.21993032097816467, -0.34664127230644226], [0.8888906240463257, -0.14236094057559967, 0.09515013545751572, 0.17742255330085754], [-0.31043946743011475, -0.7483117580413818, -0.14101195335388184, -0.14992983639240265], [-0.5483712553977966, -0.12011946737766266, 0.8608238697052002, 0.3390849828720093], [-0.7306457757949829, -0.13437451422214508, 0.5790565013885498, 0.32228705286979675], [-0.10178948193788528, 0.9459272027015686, 0.2137036770582199, 0.07722777128219604]], "biases": [-0.10832259804010391, -0.0049238489009439945, -0.0701141357421875, 0.15307481586933136]}]