[{"shape": [5, 16], "activation function": "relu", "weights": [[-0.3581860363483429, 0.4041396975517273, 0.29553839564323425, -0.1840457022190094, 0.3433868885040283, 0.49052131175994873, 0.4222319424152374, 0.2872057259082794, 0.4478609263896942, -0.19360655546188354, 0.028917750343680382, 0.558996319770813, -0.2096279263496399, -0.7420794367790222, 0.3630487620830536, 0.6220875382423401], [0.6715443730354309, -0.04894853010773659, 0.03211956471204758, 0.057365503162145615, 0.5126798748970032, 0.09765956550836563, 0.36244896054267883, -0.22614715993404388, 0.01795780658721924, 0.12529313564300537, 0.5620266199111938, -0.41084396839141846, -0.030097903683781624, -0.4904182255268097, -0.12813882529735565, -0.021595466881990433], [-0.02073385939002037, -0.15876945853233337, -0.04284738004207611, -0.17279675602912903, 0.057145025581121445, -0.18682922422885895, 0.08920478075742722, 0.00827438198029995, 0.38643598556518555, -0.16308853030204773, 0.01773306541144848, 0.09304695576429367, -0.2256452590227127, -0.002693944377824664, -0.2740299701690674, 0.16204243898391724], [-0.0028682120610028505, -0.005154358223080635, -0.23285451531410217, -0.4354807436466217, -0.017119869589805603, -0.12731902301311493, 0.009517688304185867, -0.020213697105646133, 0.04348670318722725, -0.4733855426311493, 0.016012752428650856, -0.006894557271152735, 0.3148157596588135, -0.00036279711639508605, 0.025801563635468483, 0.05925484001636505], [0.0674111545085907, -0.10096002370119095, -0.06726524978876114, 0.012695461511611938, -0.046384286135435104, -0.1419275403022766, 0.11173971742391586, -0.21945784986019135, 0.04730086773633957, 0.060750994831323624, 0.23596370220184326, -0.16830703616142273, -0.029181180521845818, -0.008930846117436886, 0.21240675449371338, 0.0653185173869133]], "biases": [-0.025202488526701927, -0.14128217101097107, 0.036419641226530075, -0.04819482937455177, -0.14930683374404907, 0.18972191214561462, -0.11622458696365356, 0.05247511714696884, -0.24038264155387878, 0.23803500831127167, -0.15727844834327698, 0.09136582911014557, 0.08002864569425583, 0.4052831828594208, -0.035984426736831665, 0.06027323007583618]}, {"shape": [16, 16], "activation function": "relu", "weights": [[0.0881691426038742, 0.6214621067047119, 0.0650641992688179, 0.23403005301952362, -0.1460118293762207, -0.07163473963737488, 0.17405162751674652, 0.2795364260673523, -0.21869947016239166, -0.8541598916053772, 0.03467777743935585, -0.31117701530456543, -0.4438047409057617, 0.3610086739063263, 0.025225207209587097, 0.25510263442993164], [0.4018740952014923, 0.21068264544010162, 0.14912624657154083, -0.338977187871933, 0.19441154599189758, -0.33699217438697815, 0.11259760707616806, 0.21903851628303528, 0.07027070969343185, 0.024367479607462883, -0.0952337384223938, 0.20209437608718872, 0.2375899851322174, 0.18241988122463226, -0.1231628805398941, -0.4303881824016571], [0.16588766872882843, -0.2569780647754669, 0.3691587448120117, 0.2396152764558792, 0.23568402230739594, -0.2359808385372162, -0.19211244583129883, 0.1655738204717636, -0.00804500374943018, -0.33448734879493713, -0.10719700157642365, -0.06322048604488373, 0.2650829255580902, 0.13339336216449738, 0.029348094016313553, -0.30638056993484497], [0.16680413484573364, 0.041441988199949265, -0.2570772171020508, 0.23580244183540344, -0.05539955571293831, 0.16469469666481018, 0.10392394661903381, 0.14569011330604553, -0.07623961567878723, 0.15892423689365387, 0.40786850452423096, -0.05928153544664383, -0.37644511461257935, -0.030668174847960472, 0.2197369635105133, -0.05135636031627655], [-0.0796349048614502, 0.22364388406276703, -0.06370402127504349, -0.08283597230911255, 0.03368518874049187, 0.025967340916395187, 0.06832963228225708, -0.15491242706775665, -0.18778486549854279, 0.5821712017059326, 0.16339893639087677, 0.36933523416519165, -0.32694849371910095, 0.26324519515037537, -0.3647545874118805, -0.21650469303131104], [0.11527198553085327, 0.37100285291671753, 0.16731658577919006, -0.019167959690093994, -0.20039665699005127, 0.2550148367881775, 0.012167762033641338, -0.42675530910491943, -0.08566496521234512, 0.3300742208957672, -0.3879358172416687, 0.3011375367641449, -0.20068417489528656, 0.13028092682361603, -0.2117779403924942, 0.3547612428665161], [-0.32223889231681824, 0.27431684732437134, -0.44038087129592896, -0.17438971996307373, 0.317561537027359, 0.19778411090373993, 0.16782993078231812, 0.361797034740448, -0.38382741808891296, 0.171195849776268, 0.33179792761802673, -0.23222202062606812, -0.20877543091773987, 0.24921204149723053, 0.48100191354751587, 0.13797815144062042], [0.3519904315471649, -0.2851259708404541, 0.0522015355527401, 0.21983088552951813, -0.0428309366106987, -0.08391692489385605, 0.2821896970272064, 0.14148536324501038, 0.06685148179531097, -0.02239863947033882, 0.25888168811798096, 0.01674175076186657, -0.14318129420280457, -0.14838381111621857, 0.229538694024086, 0.06449802219867706], [0.20291921496391296, -0.5614734888076782, 0.4190346300601959, 0.2103623002767563, 0.3151921331882477, 0.09455722570419312, 0.08622574061155319, 0.31143417954444885, -0.08059062063694, 0.36556655168533325, 0.4483235478401184, -0.029998937621712685, -0.1743655502796173, 0.13670513033866882, 0.17432089149951935, -0.3210626542568207], [-0.1481645405292511, -0.04518549144268036, -0.06164802238345146, -0.07692889124155045, 0.08192438632249832, 0.07687743753194809, 0.04838665574789047, 0.17737209796905518, -0.013803171925246716, 0.042563121765851974, 0.3732295334339142, -0.04614976793527603, 0.25941550731658936, -0.03169214352965355, 0.09001461416482925, 0.08954249322414398], [0.013306716457009315, 0.05443771183490753, -0.11849357187747955, 0.018645482137799263, 0.0816807821393013, 0.6865856647491455, 0.15846551954746246, 0.8864731192588806, -0.10819051414728165, 0.43726617097854614, -0.16993378102779388, 0.1340600848197937, -0.14296944439411163, 0.45035234093666077, 0.9380571842193604, 0.46740490198135376], [-0.27517011761665344, 0.3304471969604492, -0.17766177654266357, 0.27584177255630493, 0.4883398711681366, 0.0066032144241034985, 0.009978470392525196, -0.25471651554107666, 0.03278584033250809, -0.2697659730911255, 0.14884112775325775, -0.12609362602233887, -0.40748468041419983, -0.10696592926979065, 0.14997942745685577, 0.04418100416660309], [0.2607251703739166, -0.007157607469707727, -0.11524799466133118, 0.21785825490951538, -0.01170852780342102, 0.3035896122455597, 0.20495541393756866, 0.12001166492700577, -0.10595151782035828, 0.23329731822013855, 0.24918432533740997, 0.007301670964807272, -0.007715986575931311, 0.07419908791780472, 0.23426388204097748, 0.013975090347230434], [1.0808396339416504, -0.23966450989246368, 0.2802145183086395, 0.017415691167116165, -0.3298206627368927, -0.6903481483459473, -0.2044512927532196, -0.201576828956604, -1.0230674743652344, 1.633161187171936, -0.1593250185251236, 0.1293143481016159, -0.17469707131385803, 0.24792003631591797, 0.03807317093014717, 0.9210852384567261], [0.3835311830043793, -0.03719020634889603, -0.16431072354316711, -0.1689094454050064, -0.05978403985500336, 0.25254637002944946, -0.18510273098945618, 0.0673762634396553, 0.1068795844912529, -0.09851880371570587, -0.06837953627109528, 0.16154049336910248, -0.36954015493392944, 0.23338013887405396, 0.02254265360534191, -0.25138571858406067], [-0.12039545923471451, 0.1069275438785553, 0.19402557611465454, 0.2342766672372818, 0.5572284460067749, 0.32118576765060425, 0.1765540987253189, 0.20887407660484314, -0.14305831491947174, -0.2210669219493866, 0.3275125026702881, 0.26368820667266846, -0.17731913924217224, -0.00312698632478714, -0.02745836041867733, 0.3242852985858917]], "biases": [0.13187366724014282, 0.1535278558731079, 0.17678238451480865, 0.023424003273248672, -0.1484052687883377, 0.21245935559272766, -0.008139421232044697, -0.1596040278673172, 0.33863964676856995, -0.23028767108917236, -0.3126938045024872, -0.02676757611334324, -0.06823629140853882, -0.061864614486694336, -0.30067306756973267, -0.08914917707443237]}, {"shape": [16, 16], "activation function": "relu", "weights": [[0.17074115574359894, 0.17222599685192108, 0.17110273241996765, -0.12753836810588837, 0.10587018728256226, -0.08366098254919052, -0.022462181746959686, 0.10881119221448898, 0.06369027495384216, 0.006791830062866211, -0.1314634084701538, 0.10944053530693054, 0.3424258232116699, 0.046543415635824203, -0.20920449495315552, -0.3672882616519928], [-0.27816131711006165, -0.4767615497112274, 0.29357004165649414, -0.12533801794052124, -0.5593321919441223, -0.1552872657775879, -0.17861349880695343, -0.1812097132205963, -0.0499764047563076, 0.18350829184055328, -0.09255336225032806, -0.02883094549179077, 0.02262355014681816, 0.38168951869010925, 0.18122313916683197, 0.11042365431785583], [-0.5538854002952576, -0.010420328006148338, -0.1979045271873474, 0.1731315553188324, -0.22966095805168152, -0.10178952664136887, 0.1852952092885971, 0.44244301319122314, -0.4757641851902008, -0.027047045528888702, -0.13140951097011566, -0.19410808384418488, -0.27002543210983276, 0.2249426394701004, 0.07550417631864548, -0.13722069561481476], [-0.08466345071792603, -0.12727726995944977, -0.12213257700204849, 0.1090708076953888, -0.13247138261795044, 0.22771941125392914, 0.2935583293437958, -0.1648309975862503, -0.3013228178024292, -0.28569743037223816, 0.25119155645370483, -0.30918529629707336, -0.1516410857439041, -0.14111930131912231, 0.20322805643081665, 0.43508270382881165], [0.17716707289218903, 0.27347487211227417, 0.3430549204349518, 0.34692156314849854, 0.06325804442167282, 0.48261135816574097, 0.010384682565927505, -0.27215680480003357, 0.1597701609134674, 0.15325018763542175, 0.587681770324707, -0.3523865044116974, 0.3112507164478302, 0.09394164383411407, 0.19303762912750244, -0.05280681699514389], [0.20132537186145782, -0.419241726398468, -0.2581895589828491, 0.23908616602420807, 0.1719476282596588, 0.09719797968864441, 0.08277102559804916, 0.22525738179683685, 0.12208235263824463, 0.02297794260084629, 0.2062506377696991, -0.43186694383621216, -0.21953783929347992, 0.29431211948394775, 0.22737951576709747, -0.19187003374099731], [-0.5578382015228271, 0.005807565525174141, -0.12231486290693283, 0.25699618458747864, -0.046523567289114, 0.23310701549053192, -0.030047239735722542, 0.48950231075286865, 0.2746610939502716, -0.3610926568508148, -0.031248506158590317, -0.12056133151054382, 0.05106442794203758, -0.020443188026547432, 0.19580216705799103, -0.055122010409832], [-0.13134858012199402, 0.0463876910507679, -0.156855508685112, 0.20135454833507538, 0.23948346078395844, 0.3960541784763336, 0.3452014923095703, -0.009113458916544914, 0.38911575078964233, -0.16782435774803162, -0.2060103565454483, -0.2094549685716629, -0.13384751975536346, 0.00588466739282012, 0.2786189019680023, 0.1113915666937828], [0.2555713653564453, 0.39957985281944275, -0.497901052236557, -0.6490272283554077, 0.08262138068675995, -0.2018430531024933, -0.26842087507247925, -0.05991826206445694, -0.1463688462972641, -0.3767671287059784, -0.2762835919857025, -0.3696077764034271, -0.35069718956947327, -0.059195660054683685, -0.14110642671585083, -0.6427456140518188], [-0.15231609344482422, -0.2088841050863266, -1.0318937301635742, -0.3183344602584839, -0.2548710107803345, -0.4943684935569763, 0.41287288069725037, 0.41892775893211365, -0.05678120627999306, -0.16466863453388214, 0.15569166839122772, -0.33024197816848755, -0.3711259067058563, -0.23404066264629364, 0.13020426034927368, 0.258754163980484], [0.3336585462093353, 0.25380459427833557, 0.30073264241218567, 0.18549302220344543, 0.1064818874001503, 0.5037238597869873, 1.017560362815857, -0.09536398947238922, 0.26805368065834045, -0.018715182319283485, -0.1504308581352234, -0.37695246934890747, 0.0051642716862261295, 0.078370600938797, 0.6923879384994507, 0.3268870413303375], [-0.2578113079071045, -0.07550787925720215, 0.2116880565881729, -0.3834417760372162, -0.32780203223228455, -0.06622778624296188, -0.07964412868022919, 0.26301464438438416, -0.050532467663288116, -0.16245046257972717, 0.14793434739112854, 0.15072324872016907, 0.1239333227276802, -0.1043795645236969, 0.30443838238716125, 0.30227699875831604], [0.3833234906196594, -0.3235044479370117, 0.3902682662010193, 0.07726497948169708, -0.24824818968772888, -0.2581079602241516, 0.2426232397556305, 0.09955352544784546, -0.09836942702531815, 0.11254921555519104, 0.38486456871032715, -0.0003527700901031494, 0.3674367070198059, -0.3983018398284912, -0.37156036496162415, -0.3893798887729645], [0.28845182061195374, -0.21446016430854797, 0.3252161741256714, 0.32719686627388, 0.05621986836194992, 0.40665262937545776, 0.021010464057326317, -0.37499213218688965, -0.27939003705978394, -0.3890966773033142, -0.17177222669124603, -0.3489592969417572, 0.4363754391670227, -0.4178096055984497, 0.350286602973938, 0.26043882966041565], [-0.8745590448379517, 0.15480607748031616, 0.7730886936187744, 0.23153644800186157, -0.45106783509254456, 0.6814900636672974, 0.9845030903816223, 0.29676511883735657, 0.30324476957321167, 0.2718425691127777, 1.741722822189331, -0.42104780673980713, 0.1731777936220169, 0.5887491106987, 0.4908502399921417, 0.5066107511520386], [0.2651256024837494, -0.2383534461259842, -0.04759424924850464, -0.0342436246573925, 0.3661746382713318, 0.07560884952545166, -0.4414380192756653, -0.2385604977607727, 0.2797810137271881, -0.21106190979480743, 0.10713699460029602, -0.0020629167556762695, 0.0999462753534317, -0.2761118412017822, -0.09070505201816559, 0.04875439777970314]], "biases": [0.053183671087026596, -0.036673665046691895, -0.13530215620994568, 0.139964759349823, 0.06162888556718826, -0.3230491578578949, -0.18692995607852936, 0.06868813186883926, 0.023974839597940445, -0.03923918679356575, -0.147996187210083, 0.0, -0.2661285698413849, 0.11999983340501785, 0.06005631759762764, -0.21703864634037018]}, {"shape": [16, 2], "activation function": "linear", "weights": [[-0.09339095652103424, -0.17644426226615906], [0.08442346006631851, -0.23031629621982574], [-0.053834982216358185, -0.2066478282213211], [0.006037586834281683, 0.356035977602005], [-0.2815205752849579, -0.1815744787454605], [0.2769630253314972, 0.07427293807268143], [0.37242400646209717, 0.6677932143211365], [-0.14591200649738312, -0.33585456013679504], [0.21086935698986053, 0.3506937026977539], [-0.36037155985832214, -0.4279542863368988], [0.2217871993780136, 0.3175731301307678], [0.09261572360992432, 0.02005094289779663], [-0.1678554266691208, -0.24294981360435486], [-0.11017206311225891, 0.27398642897605896], [0.2506222724914551, 0.5168120265007019], [-0.1926361471414566, -0.33563679456710815]], "biases": [0.027256853878498077, 0.07122202217578888]}]